digraph Tree {
node [shape=box, style="filled", color="black", fontname="helvetica"] ;
edge [fontname="helvetica"] ;
0 [label="Total day charge <= 44.96\ngini = 0.255\nsamples = 2333\nvalue = [1983, 350]", fillcolor="#ea975c"] ;
1 [label="Customer service calls <= 3.5\ngini = 0.206\nsamples = 2182\nvalue = [1927, 255]", fillcolor="#e89253"] ;
0 -> 1 [labeldistance=2.5, labelangle=45, headlabel="True"] ;
2 [label="International plan <= 0.5\ngini = 0.149\nsamples = 2004\nvalue = [1842, 162]", fillcolor="#e78c4a"] ;
1 -> 2 ;
3 [label="Total day charge <= 38.185\ngini = 0.096\nsamples = 1828\nvalue = [1736, 92]", fillcolor="#e68843"] ;
2 -> 3 ;
4 [label="(...)", fillcolor="#C0C0C0"] ;
3 -> 4 ;
11 [label="(...)", fillcolor="#C0C0C0"] ;
3 -> 11 ;
18 [label="Total intl calls <= 2.5\ngini = 0.479\nsamples = 176\nvalue = [106, 70]", fillcolor="#f6d4bc"] ;
2 -> 18 ;
19 [label="(...)", fillcolor="#C0C0C0"] ;
18 -> 19 ;
20 [label="(...)", fillcolor="#C0C0C0"] ;
18 -> 20 ;
25 [label="Total day charge <= 27.185\ngini = 0.499\nsamples = 178\nvalue = [85, 93]", fillcolor="#eef7fd"] ;
1 -> 25 ;
26 [label="Total eve charge <= 22.57\ngini = 0.209\nsamples = 76\nvalue = [9, 67]", fillcolor="#54aae8"] ;
25 -> 26 ;
27 [label="(...)", fillcolor="#C0C0C0"] ;
26 -> 27 ;
32 [label="(...)", fillcolor="#C0C0C0"] ;
26 -> 32 ;
35 [label="Total eve minutes <= 155.5\ngini = 0.38\nsamples = 102\nvalue = [76, 26]", fillcolor="#eeac7d"] ;
25 -> 35 ;
36 [label="(...)", fillcolor="#C0C0C0"] ;
35 -> 36 ;
43 [label="(...)", fillcolor="#C0C0C0"] ;
35 -> 43 ;
50 [label="Number vmail messages <= 6.5\ngini = 0.467\nsamples = 151\nvalue = [56, 95]", fillcolor="#aed7f4"] ;
0 -> 50 [labeldistance=2.5, labelangle=-45, headlabel="False"] ;
51 [label="Total eve charge <= 15.96\ngini = 0.335\nsamples = 113\nvalue = [24, 89]", fillcolor="#6eb7ec"] ;
50 -> 51 ;
52 [label="Total day charge <= 51.415\ngini = 0.495\nsamples = 40\nvalue = [22, 18]", fillcolor="#fae8db"] ;
51 -> 52 ;
53 [label="(...)", fillcolor="#C0C0C0"] ;
52 -> 53 ;
60 [label="(...)", fillcolor="#C0C0C0"] ;
52 -> 60 ;
61 [label="Total night charge <= 5.9\ngini = 0.053\nsamples = 73\nvalue = [2, 71]", fillcolor="#3fa0e6"] ;
51 -> 61 ;
62 [label="(...)", fillcolor="#C0C0C0"] ;
61 -> 62 ;
65 [label="(...)", fillcolor="#C0C0C0"] ;
61 -> 65 ;
66 [label="International plan <= 0.5\ngini = 0.266\nsamples = 38\nvalue = [32, 6]", fillcolor="#ea995e"] ;
50 -> 66 ;
67 [label="Total day charge <= 54.23\ngini = 0.062\nsamples = 31\nvalue = [30, 1]", fillcolor="#e68540"] ;
66 -> 67 ;
68 [label="(...)", fillcolor="#C0C0C0"] ;
67 -> 68 ;
69 [label="(...)", fillcolor="#C0C0C0"] ;
67 -> 69 ;
70 [label="Total eve minutes <= 209.3\ngini = 0.408\nsamples = 7\nvalue = [2, 5]", fillcolor="#88c4ef"] ;
66 -> 70 ;
71 [label="(...)", fillcolor="#C0C0C0"] ;
70 -> 71 ;
74 [label="(...)", fillcolor="#C0C0C0"] ;
70 -> 74 ;
}